tree
version=v3
num_class=1
num_tree_per_iteration=1
label_index=0
max_feature_idx=55
objective=binary sigmoid:1
feature_names=EJ DU FD CH FI AB DI BQ EP DN DY CW FL AX EE AZ CD GB EB DA BC AR DH GH CU GL GE FR CB FC FE CL EH FS CR AH DV GI EG EL BZ AM BR AY AF EU DL CS BN GF CF CC BP BD DF DE
feature_infos=[-1.4422205101855958:0.6933752452815366] [-0.82298004143450298:3.4556456599788792] [-1.0911577501074181:2.3670254076338582] [-1.8079176580997154:3.1561509810715203] [-3.146481484206904:2.694924016526806] [-1.5825187992865963:4.0295925702977993] [-1.6927462747747266:4.2729487828501576] [-3.1990330481966041:1.4663536204665879] [-0.72422023784727008:4.1873561776541939] [-4.3964169529586243:2.0858351562041184] [-3.369197031233:2.2281783670342943] [-1.5935601425664829:1.4405586045517178] [-1.1648496227642184:3.1097840605575744] [-4.0779699132641269:2.7662902757728012] [-2.2753362568609092:2.111407761069525] [-2.1017945604607786:3.1298917980847731] [-2.7696503383249773:3.4409654120777247] [-2.4926593323518835:2.7052746737662763] [-1.2962703945001703:2.925437000114476] [-3.7441428011708067:2.2844656193511721] [-0.68461839843980266:6.6856256159988368] [-0.41851428552362141:5.5498624263927265] [-2.4358688380711664:4.845297723593319] [-3.5976187477170258:2.3242065547172803] [-2.8372169700135617:2.5509707005307618] [-0.86882151237940142:1.3782946668383855] [-0.58077520136885796:4.3091676968690287] [-0.91581170077361895:6.8090819818124997] [-1.4197310703436625:4.1857944556495008] [-1.9451980387015411:4.062813223407697] [-2.2241395308116965:3.3727352862921922] [-0.35246637862771574:8.9449952540885711] [-0.72906894105164299:5.4693319298503074] [-0.97259177551015008:3.7355584259646681] [-3.0998845423683603:5.3671960628968591] [-0.47126960773633214:4.3041289061405505] none [-2.6947149629830198:1.8621354882213885] [-3.3017405529118782:3.8953536179400001] [-2.2732543072535796:0.98409435402238044] [-0.50231552198141982:3.0794232969454653] [-1.7614079272040122:3.5751043403414768] [-2.3875649136451416:2.6251747451362437] [-0.44754477216730265:4.9475687881152428] [-3.9710536020717417:2.2668145295855422] [-1.1187397516508255:4.0305786351053472] [-3.6522247232630494:3.0484541512472618] [-3.06097280722553:2.8113404799372876] [-3.500193770706991:1.7628547016123246] [-4.5217399324796155:2.1279654625815119] [-2.8531092562091507:2.0801026825067344] [-2.0381403173319779:6.6061417427437474] [-1.8506598131481102:4.534603612839847] [-2.528699774362706:5.0264549906368732] [-0.49049577186795779:3.3437837772809522] [-2.7120766337767193:2.4598913444437156]
tree_sizes=442 548 552 755 755 649 753 652 758 756 653 752 656 654 651 856 552 652 654 756 651 658 653 654 554 653 655 549 859 653 655 651 867

Tree=0
num_leaves=3
num_cat=0
split_feature=1 5
split_gain=34.062 16.6362
threshold=0.61267155615308688 0.22371974076606682
decision_type=2 2
left_child=1 -1
right_child=-2 -3
leaf_value=-1.3511460662603498 -0.979264935326702 -1.1354097509519863
leaf_weight=11.955846667289739 4.5713531374931327 5.0988169610500327
leaf_count=68 26 29
internal_value=-1.22167 -1.28665
internal_weight=0 17.0547
internal_count=123 97
is_linear=0
shrinkage=1


Tree=1
num_leaves=4
num_cat=0
split_feature=1 5 1
split_gain=25.1215 14.4022 3.55271e-15
threshold=0.61267155615308688 0.22371974076606682 -0.3110248363229246
decision_type=2 2 2
left_child=1 2 -1
right_child=-2 -3 -4
leaf_value=-0.12589433624213459 0.19185456417184718 0.073978302278241079 -0.12589433624213459
leaf_weight=7.3519892245531118 5.1606906354427329 5.3370245993137351 3.7576833814382571
leaf_count=45 26 29 23
internal_value=0 -0.0610348 -0.125894
internal_weight=0 16.4467 11.1097
internal_count=123 97 68
is_linear=0
shrinkage=0.1


Tree=2
num_leaves=4
num_cat=0
split_feature=1 5 0
split_gain=19.2986 12.5713 1.77636e-15
threshold=0.61267155615308688 0.22371974076606682 -1.0000000180025095e-35
decision_type=2 2 2
left_child=1 2 -1
right_child=-2 -3 -4
leaf_value=-0.12283123570447517 0.15871410899356808 0.064028547402352046 -0.12283123570447514
leaf_weight=4.5397621393203735 5.5881295800209037 5.5380864590406409 5.7503653764724749
leaf_count=30 26 29 38
internal_value=0 -0.0574514 -0.122831
internal_weight=0 15.8282 10.2901
internal_count=123 97 68
is_linear=0
shrinkage=0.1


Tree=3
num_leaves=6
num_cat=0
split_feature=34 1 10 38 7
split_gain=17.949 14.9596 4.72479 0.0475834 0.000876149
threshold=-0.9942083246343475 0.96365114578886313 0.63137813318456748 0.31881614685758558 0.33581749704156055
decision_type=2 2 2 2 2
left_child=-1 2 3 4 -2
right_child=1 -3 -4 -5 -6
leaf_value=0.20675523741959614 -0.12019223706473284 0.13192404111441228 0.0077280652010994202 -0.13597626962942719 -0.12245068652333949
leaf_weight=3.4649181365966824 4.1932712495327014 3.856229916214942 3.5930719524621955 3.0939476639032364 2.9096583127975464
leaf_count=18 30 17 21 17 20
internal_value=0 -0.0421901 -0.0908795 -0.125626 -0.121117
internal_weight=0 17.6462 13.7899 10.1969 7.10293
internal_count=123 105 88 67 50
is_linear=0
shrinkage=0.1


Tree=4
num_leaves=6
num_cat=0
split_feature=34 1 10 38 10
split_gain=13.6057 12.3757 4.38268 0.033072 0.000661774
threshold=-0.9942083246343475 0.96365114578886313 0.63137813318456748 0.31881614685758558 0.05524244739910409
decision_type=2 2 2 2 2
left_child=-1 2 3 4 -2
right_child=1 -3 -4 -5 -6
leaf_value=0.17039086492281885 -0.11788663298862911 0.11427375863853305 0.0069253123918628541 -0.1315703866728368 -0.11992999123668371
leaf_weight=3.7653596550226238 3.8611831068992633 3.9982128441333762 3.6077860146760932 2.8883770108222961 2.6886077523231506
leaf_count=18 30 17 21 17 20
internal_value=0 -0.0396485 -0.0868213 -0.122656 -0.118725
internal_weight=0 17.0442 13.046 9.43817 6.54979
internal_count=123 105 88 67 50
is_linear=0
shrinkage=0.1


Tree=5
num_leaves=5
num_cat=0
split_feature=4 39 5 55
split_gain=11.7324 6.31746 5.38307 0.353478
threshold=-0.19593403130482387 0.62717140952773398 0.19273165270615286 0.097135379442514255
decision_type=2 2 2 2
left_child=2 3 -1 -2
right_child=1 -3 -4 -5
leaf_value=0.0084726808579152109 -0.13678589947441958 0.02205482445137075 0.17973236120684019 -0.092630762153559809
leaf_weight=3.4702321588993099 4.4242388308048231 5.5504854544997215 3.8957726061344147 3.0717986896634102
leaf_count=23 27 33 18 22
internal_value=0 -0.0588127 0.0990494 -0.118692
internal_weight=0 13.0465 7.366 7.49604
internal_count=123 82 41 49
is_linear=0
shrinkage=0.1


Tree=6
num_leaves=6
num_cat=0
split_feature=1 14 5 5 10
split_gain=10.7137 10.6432 1.67673 0.0196675 0.000297051
threshold=0.61267155615308688 -0.9824110192802088 0.61847340782944904 -0.14375382782024007 0.19981244764624173
decision_type=2 2 2 2 2
left_child=1 -1 3 4 -3
right_child=-2 2 -4 -5 -6
leaf_value=0.10939411234642643 0.10827224200594113 -0.11520401552476567 -0.027367984700216154 -0.12607522071144131 -0.1167085948839012
leaf_weight=3.2268740907311448 6.1420585960149756 2.8538789153099051 2.593734711408616 2.9623139128088942 2.4290879145264626
leaf_count=19 26 25 13 20 20
internal_value=0 -0.0500311 -0.0974935 -0.119553 -0.115896
internal_weight=0 14.0659 10.839 8.24528 5.28297
internal_count=123 97 78 65 45
is_linear=0
shrinkage=0.1


Tree=7
num_leaves=5
num_cat=0
split_feature=4 39 44 55
split_gain=9.21188 5.59489 3.47729 0.366146
threshold=-0.19593403130482387 0.62717140952773398 0.33748606472821091 0.097135379442514255
decision_type=2 2 2 2
left_child=2 3 -1 -2
right_child=1 -3 -4 -5
leaf_value=0.023766215053512969 -0.13489968842293396 0.019818087830748496 0.16098558169194843 -0.087813446641382006
leaf_weight=4.0905608683824566 4.0257737413048726 5.5191969946026802 3.3667218312621117 2.8001198843121529
leaf_count=25 27 33 16 22
internal_value=0 -0.0550489 0.0857163 -0.115584
internal_weight=0 12.3451 7.45728 6.82589
internal_count=123 82 41 49
is_linear=0
shrinkage=0.1


Tree=8
num_leaves=6
num_cat=0
split_feature=1 14 46 5 14
split_gain=8.76733 8.61816 1.87898 0.0630286 0.000300855
threshold=0.61267155615308688 -0.9824110192802088 -0.41945806535562918 0.11842481075779794 0.20840272770846416
decision_type=2 2 2 2 2
left_child=1 -1 -3 4 -4
right_child=-2 2 3 -5 -6
leaf_value=0.090518212432074321 0.096332469855689593 -0.024910600259033671 -0.11310045132632229 -0.13315241155676036 -0.1147519637759199
leaf_weight=3.3775549978017816 6.1923650354146949 2.8104250654578209 2.2253584638237953 2.7755967974662781 2.1871552243828773
leaf_count=19 26 20 22 16 20
internal_value=0 -0.0475868 -0.0942394 -0.121346 -0.113919
internal_weight=0 13.3761 9.99854 7.18811 4.41251
internal_count=123 97 78 58 42
is_linear=0
shrinkage=0.1


Tree=9
num_leaves=6
num_cat=0
split_feature=34 1 14 5 28
split_gain=7.36558 7.58272 3.74506 0.0376203 0.000774093
threshold=-0.9942083246343475 0.76361371219040619 -0.85461399664298654 0.38349876465657079 -0.35960006944593537
decision_type=2 2 2 2 2
left_child=-1 2 -2 4 -4
right_child=1 -3 3 -5 -6
leaf_value=0.11773844841644657 0.020995920184948003 0.069370801396458959 -0.11459475638392634 -0.128364362947233 -0.11214431847701603
leaf_weight=4.0455821454525021 2.6057742461562157 4.8179809749126425 2.144588403403759 2.3170089274644852 3.2319472879171354
leaf_count=18 17 20 20 14 34
internal_value=0 -0.0341785 -0.0826185 -0.117712 -0.113122
internal_weight=0 15.1173 10.2993 7.69354 5.37654
internal_count=123 105 85 68 54
is_linear=0
shrinkage=0.1


Tree=10
num_leaves=5
num_cat=0
split_feature=4 15 12 25
split_gain=7.02995 5.28778 2.7512 0.570707
threshold=-0.19593403130482387 0.30888372653452406 0.18643908342012019 -0.75417585955183797
decision_type=2 2 2 2
left_child=2 3 -1 -2
right_child=1 -3 -4 -5
leaf_value=0.0059396599299140172 -0.14091404307309677 0.022391980314351134 0.12940767003643094 -0.079267670537651741
leaf_weight=3.2561980113387134 3.4947512075304994 5.2407424002885818 4.0487164109945297 2.6333384439349148
leaf_count=20 23 34 21 25
internal_value=0 -0.0513551 0.0743713 -0.114424
internal_weight=0 11.3688 7.30491 6.12809
internal_count=123 82 41 48
is_linear=0
shrinkage=0.1


Tree=11
num_leaves=6
num_cat=0
split_feature=39 55 1 4 10
split_gain=6.60478 8.31983 5.5368 0.011326 0.00418853
threshold=0.62717140952773398 -0.18769633408783168 0.76361371219040619 -0.19593403130482387 0.23218876472634473
decision_type=2 2 2 2 2
left_child=2 -2 3 -1 -5
right_child=1 -3 -4 4 -6
leaf_value=-0.12353991533840446 0.13430647142113691 -0.067547146348991782 0.039747032637953553 -0.1111170475419649 -0.11762860322412901
leaf_weight=2.1006826758384705 5.5804499462246895 3.2202476784586906 3.5457888096570969 1.927884675562382 2.025957316160202
leaf_count=16 26 25 15 23 18
internal_value=0 0.0604466 -0.0594892 -0.117606 -0.114454
internal_weight=0 8.8007 9.60031 6.05452 3.95384
internal_count=123 51 72 57 41
is_linear=0
shrinkage=0.1


Tree=12
num_leaves=5
num_cat=0
split_feature=44 46 7 16
split_gain=5.93402 9.74584 3.51044 1.44997
threshold=-0.063493646576100113 0.53037766827802202 -1.0000000180025095e-35 -0.12093365706934618
decision_type=2 2 2 2
left_child=3 2 -2 -1
right_child=1 -3 -4 -5
leaf_value=-0.12654237976867269 0.029047179186190882 -0.082099303680763458 0.16662736461166042 -0.028192848554272135
leaf_weight=3.3543699905276299 3.2642129883170137 4.2471956498920918 4.2946401834487888 2.7102249711751965
leaf_count=27 22 31 21 22
internal_value=0 0.0391095 0.107215 -0.0825907
internal_weight=0 11.806 7.55885 6.06459
internal_count=123 74 43 49
is_linear=0
shrinkage=0.1


Tree=13
num_leaves=5
num_cat=0
split_feature=51 1 14 38
split_gain=5.84132 6.74939 0.997544 0.0328606
threshold=-0.48487551227612863 0.96365114578886313 -0.49247231393900964 0.31881614685758558
decision_type=2 2 2 2
left_child=-1 2 -2 -4
right_child=1 -3 3 -5
leaf_value=0.080842244891756718 -0.035643198642724166 0.061669984515210698 -0.11133631691232389 -0.12648240691914692
leaf_weight=5.7091875039041069 1.945755489170552 4.0725711584091187 3.036353558301923 2.7117224372923374
leaf_count=33 17 17 36 20
internal_value=0 -0.0424292 -0.097532 -0.118482
internal_weight=0 11.7664 7.69383 5.74808
internal_count=123 90 73 56
is_linear=0
shrinkage=0.1


Tree=14
num_leaves=5
num_cat=0
split_feature=39 5 1 24
split_gain=5.06796 5.64385 4.34284 0.00771988
threshold=0.62717140952773398 0.19273165270615286 0.76361371219040619 0.080454138003984585
decision_type=2 2 2 2
left_child=2 -2 3 -1
right_child=1 -3 -4 -5
leaf_value=-0.11833360688997741 -0.050832147058003818 0.11723319446298147 0.030224642830476746 -0.11058084789077623
leaf_weight=2.622211117297411 3.2395908683538437 5.2139750197529793 3.4725755453109741 2.5174929834902287
leaf_count=24 27 24 15 33
internal_value=0 0.0528269 -0.0561669 -0.114536
internal_weight=0 8.45357 8.61228 5.1397
internal_count=123 51 72 57
is_linear=0
shrinkage=0.1


Tree=15
num_leaves=7
num_cat=0
split_feature=4 20 5 44 32 55
split_gain=4.5829 4.92724 2.51609 1.65454 0.111448 0.0086551
threshold=-0.19593403130482387 0.91519807181557444 0.54608728356163005 0.38851144993142678 0.27393113781010131 -0.061685759618741558
decision_type=2 2 2 2 2 2
left_child=3 2 4 -1 5 -2
right_child=1 -3 -4 -5 -6 -7
leaf_value=0.015572735905029712 -0.11945516349231569 0.079059708267930573 0.00052442363151928033 0.11535003540336922 -0.14479489336405835 -0.10926318892987208
leaf_weight=3.5889461636543301 1.5131349079310903 2.4065656661987305 2.34068962931633 3.0952427461743355 1.7772974781692026 1.8542693629860851
leaf_count=26 17 14 13 15 12 26
internal_value=0 -0.0454115 -0.0854292 0.0617765 -0.124536 -0.113843
internal_weight=0 9.89196 7.48539 6.68419 5.1447 3.3674
internal_count=123 82 68 41 55 43
is_linear=0
shrinkage=0.1


Tree=16
num_leaves=4
num_cat=0
split_feature=24 17 52
split_gain=4.27488 4.23554 0.580606
threshold=-0.39138176134999608 0.3260765994076476 -0.26998747738520601
decision_type=2 2 2
left_child=-1 2 -2
right_child=1 -3 -4
leaf_value=0.067132603316775327 -0.061014896382417472 0.025252786786617798 -0.12833940330775528
leaf_weight=5.7459350153803852 2.1017595306038865 5.0815236233174801 3.2800531685352299
leaf_count=34 23 33 33
internal_value=0 -0.0402239 -0.102047
internal_weight=0 10.4633 5.38181
internal_count=123 89 56
is_linear=0
shrinkage=0.1


Tree=17
num_leaves=5
num_cat=0
split_feature=44 46 19 13
split_gain=4.10607 6.43841 2.64946 1.46722
threshold=-0.063493646576100113 0.53037766827802202 -0.11931440646605208 -0.2134982253158049
decision_type=2 2 2 2
left_child=3 2 -2 -1
right_child=1 -3 -4 -5
leaf_value=-0.019268300362086373 0.14847531825305491 -0.07428619486033132 0.026449573162255803 -0.12600316311026041
leaf_weight=2.4470007829368114 3.6200106851756564 3.6886330656707287 3.4993201531469813 2.7189313620328912
leaf_count=24 18 31 25 25
internal_value=0 0.0329408 0.0884968 -0.075445
internal_weight=0 10.808 7.11933 5.16593
internal_count=123 74 43 49
is_linear=0
shrinkage=0.1


Tree=18
num_leaves=5
num_cat=0
split_feature=1 5 16 7
split_gain=3.83151 4.93844 0.00616551 0.00180232
threshold=0.61267155615308688 0.22371974076606682 -0.58125437721025863 -0.68235283971778282
decision_type=2 2 2 2
left_child=1 2 -1 -4
right_child=-2 -3 3 -5
leaf_value=-0.11665380725482842 0.06382108581458118 0.029841831327470387 -0.11175179973302025 -0.10703635397175688
leaf_weight=1.5061801932752121 5.6354438513517389 5.0486456602811813 1.3660937622189513 1.9932296816259623
leaf_count=16 26 29 17 35
internal_value=0 -0.0394439 -0.111338 -0.108954
internal_weight=0 9.91415 4.8655 3.35932
internal_count=123 97 68 52
is_linear=0
shrinkage=0.1


Tree=19
num_leaves=6
num_cat=0
split_feature=51 1 16 43 6
split_gain=3.73622 4.35465 3.61601 0.389799 0.0204596
threshold=-0.31188117873384397 0.96365114578886313 -0.051927276855392758 -0.43899744518632949 0.19936813605378703
decision_type=2 2 2 2 2
left_child=2 3 -1 4 -2
right_child=1 -3 -4 -5 -6
leaf_value=-0.019998226396570579 -0.11171327229911328 0.041178623021702013 0.13295949913530997 -0.056762751066402807 -0.12667217908535183
leaf_weight=3.0400670915842056 2.3897927198559041 3.6300216317176819 3.1439281404018411 1.4576050713658322 1.4809021726250646
leaf_count=24 33 16 19 18 13
internal_value=0 -0.0432915 0.0577651 -0.100839 -0.117436
internal_weight=0 8.95832 6.184 5.3283 3.87069
internal_count=123 80 43 64 46
is_linear=0
shrinkage=0.1


Tree=20
num_leaves=5
num_cat=0
split_feature=48 39 1 24
split_gain=3.57345 5.2628 3.44394 0.00295302
threshold=0.98863382666277622 0.62717140952773398 0.76361371219040619 0.16691250306013869
decision_type=2 2 2 2
left_child=1 2 3 -1
right_child=-2 -3 -4 -5
leaf_value=-0.1132555243688604 -0.09997205984781396 0.095011497307230797 0.037223004967723398 -0.10716895671392808
leaf_weight=1.8790666684508308 2.9704561717808255 5.4263282530009747 3.0422678291797638 1.3843860961496828
leaf_count=22 21 38 14 28
internal_value=0 0.0228117 -0.0393191 -0.110674
internal_weight=0 11.732 6.30572 3.26345
internal_count=123 102 64 50
is_linear=0
shrinkage=0.1


Tree=21
num_leaves=5
num_cat=0
split_feature=26 16 17 14
split_gain=3.2379 4.51923 1.80113 1.55563
threshold=-0.1019291422591798 -0.19851653457196675 -1.0000000180025095e-35 -0.17453425102538903
decision_type=2 2 2 2
left_child=1 -1 -2 -3
right_child=2 3 -4 -5
leaf_value=-0.056791718222912291 -0.12995453999602502 0.13112961465516326 -0.0012165623189183974 0.030508274579157585
leaf_weight=3.7501665297895661 2.4684876818209887 3.1777239032089701 1.9414982646703727 2.9748608730733395
leaf_count=37 26 18 17 25
internal_value=0 0.0297365 -0.0732776 0.0824778
internal_weight=0 9.90275 4.40999 6.15258
internal_count=123 80 43 43
is_linear=0
shrinkage=0.1


Tree=22
num_leaves=5
num_cat=0
split_feature=44 46 7 14
split_gain=3.01729 4.82862 1.59972 1.39033
threshold=-0.063493646576100113 0.53037766827802202 0.25055863480370372 -0.49247231393900964
decision_type=2 2 2 2
left_child=3 2 -2 -1
right_child=1 -3 -4 -5
leaf_value=-0.0045890854941794791 0.025880442863107422 -0.070720287701096216 0.12644122179437275 -0.11823995229618414
leaf_weight=1.861498564481735 2.9395434819161874 3.1915617398917675 3.4252098836004734 2.552149200811983
leaf_count=14 23 31 20 35
internal_value=0 0.0296617 0.0799975 -0.0703066
internal_weight=0 9.55632 6.36475 4.41365
internal_count=123 74 43 49
is_linear=0
shrinkage=0.1


Tree=23
num_leaves=5
num_cat=0
split_feature=48 39 1 24
split_gain=2.82973 3.89198 2.97128 0.00159079
threshold=0.98863382666277622 0.62717140952773398 0.76361371219040619 0.16691250306013869
decision_type=2 2 2 2
left_child=1 2 3 -1
right_child=-2 -3 -4 -5
leaf_value=-0.11110188313071777 -0.092794859314359768 0.084169970871511346 0.035357386341708118 -0.10627578515020249
leaf_weight=1.6357634998857959 2.7323415018618116 5.140320710837841 2.8892118781805038 1.1726148854941127
leaf_count=22 21 38 14 28
internal_value=0 0.0210796 -0.0358401 -0.109087
internal_weight=0 10.8379 5.69759 2.80838
internal_count=123 102 64 50
is_linear=0
shrinkage=0.1


Tree=24
num_leaves=4
num_cat=0
split_feature=19 24 42
split_gain=2.69617 3.15108 1.32156
threshold=-0.46410936331699387 -0.28409303697059951 -0.22052857504984497
decision_type=2 2 2
left_child=-1 -2 -3
right_child=1 2 -4
leaf_value=0.060893089829526903 0.037013953001717684 -0.017773198072660087 -0.12377307081678852
leaf_weight=4.5090453699231157 3.6109047792851916 1.8497754372656334 3.2299814950674772
leaf_count=39 27 20 37
internal_value=0 -0.0344056 -0.0851736
internal_weight=0 8.69066 5.07976
internal_count=123 84 57
is_linear=0
shrinkage=0.1


Tree=25
num_leaves=5
num_cat=0
split_feature=44 46 6 16
split_gain=2.44937 3.63769 1.36596 1.3455
threshold=-0.063493646576100113 0.53037766827802202 -0.020205047171586544 -0.12093365706934618
decision_type=2 2 2 2
left_child=3 2 -2 -1
right_child=1 -3 -4 -5
leaf_value=-0.11986470784103005 0.019000958933157251 -0.063548716175607353 0.1153276873995772 -0.004171244638878609
leaf_weight=2.1734721586108208 2.6552682258188716 2.9385221730917692 3.3038306534290305 1.8702005259692676
leaf_count=27 22 31 21 22
internal_value=0 0.0275058 0.0724062 -0.0663564
internal_weight=0 8.89762 5.9591 4.04367
internal_count=123 74 43 49
is_linear=0
shrinkage=0.1


Tree=26
num_leaves=5
num_cat=0
split_feature=1 5 46 39
split_gain=2.41992 3.20601 0.00232365 0.000810657
threshold=0.61267155615308688 0.22371974076606682 -0.58208847991681922 0.62717140952773398
decision_type=2 2 2 2
left_child=1 2 -1 -4
right_child=-2 -3 3 -5
leaf_value=-0.11214191033201881 0.052837365514448599 0.022027389139127759 -0.1046072645748873 -0.10825096852554245
leaf_weight=1.0201684795320036 4.9351923316717148 4.1720177680253983 1.2010689275339246 1.2419822998344898
leaf_count=14 26 29 34 20
internal_value=0 -0.0370115 -0.108133 -0.10646
internal_weight=0 7.63524 3.46322 2.44305
internal_count=123 97 68 54
is_linear=0
shrinkage=0.1


Tree=27
num_leaves=4
num_cat=0
split_feature=48 26 44
split_gain=2.24206 3.36786 2.1425
threshold=0.98863382666277622 -0.1019291422591798 0.027482910796685633
decision_type=2 2 2
left_child=1 2 -1
right_child=-2 -3 -4
leaf_value=-0.01506538788177602 -0.087236892950172409 -0.074315793724119325 0.098884322732860075
leaf_weight=2.6356782028451553 2.4526222813874492 2.7437471691519013 4.4123642016202211
leaf_count=35 21 36 31
internal_value=0 0.01968 0.0562718
internal_weight=0 9.79179 7.04804
internal_count=123 102 66
is_linear=0
shrinkage=0.1


Tree=28
num_leaves=7
num_cat=0
split_feature=4 20 1 14 5 1
split_gain=2.07931 3.16109 2.43316 2.14687 0.979063 0.0399303
threshold=-0.02189803644132414 0.91519807181557444 0.57475532665669793 -0.78023124571765734 0.61847340782944904 0.57475532665669793
decision_type=2 2 2 2 2 2
left_child=2 4 3 -1 5 -2
right_child=1 -3 -4 -5 -6 -7
leaf_value=0.075566207224218432 -0.10844906037556566 0.065839116586926191 0.13057520758216234 -0.085674129054720161 -0.021090509111998008 -0.13168868679490733
leaf_weight=1.5873911119997504 1.6784800384193661 1.9881678763777015 2.0386415459215641 1.7210796512663362 1.5637154728174207 1.3213870599865911
leaf_count=11 37 13 12 30 11 9
internal_value=0 -0.0393974 0.0446404 -0.00831166 -0.0852446 -0.118686
internal_weight=0 6.55175 5.34711 3.30847 4.56358 2.99987
internal_count=123 70 53 41 57 46
is_linear=0
shrinkage=0.1


Tree=29
num_leaves=5
num_cat=0
split_feature=39 4 14 28
split_gain=1.98872 2.31884 2.05555 0.276138
threshold=0.62717140952773398 -0.23866614899143987 -0.5530259538597192 -0.35960006944593537
decision_type=2 2 2 2
left_child=1 -1 -2 -3
right_child=2 3 -4 -5
leaf_value=0.032674730957505595 0.088377357033687501 -0.060335050687713478 -0.029710483340127516 -0.1221845203559072
leaf_weight=2.2200722210109234 3.4468840472400188 1.1100659621879461 2.5754680242389441 2.0641511082649231
leaf_count=22 24 19 27 31
internal_value=0 -0.045723 0.0378769 -0.100555
internal_weight=0 5.39429 6.02235 3.17422
internal_count=123 72 51 50
is_linear=0
shrinkage=0.1


Tree=30
num_leaves=5
num_cat=0
split_feature=1 5 46 39
split_gain=2.02141 2.4215 0.00191745 0.000509297
threshold=0.61267155615308688 0.22371974076606682 -0.58208847991681922 0.62717140952773398
decision_type=2 2 2 2
left_child=1 2 -1 -4
right_child=-2 -3 3 -5
leaf_value=-0.11093091957466411 0.05068178476965695 0.014993763408755967 -0.10355553457184925 -0.10678523262544415
leaf_weight=0.85350046493113074 4.443736232817173 3.8660887144505978 0.9299548044800755 1.0279741790145636
leaf_count=14 26 29 34 20
internal_value=0 -0.0363588 -0.106975 -0.105251
internal_weight=0 6.67752 2.81143 1.95793
internal_count=123 97 68 54
is_linear=0
shrinkage=0.1


Tree=31
num_leaves=5
num_cat=0
split_feature=48 39 4 55
split_gain=1.8915 2.57835 1.97175 0.242478
threshold=0.98863382666277622 0.62717140952773398 -0.23866614899143987 -0.25443217370181781
decision_type=2 2 2 2
left_child=1 2 -1 -4
right_child=-2 -3 3 -5
leaf_value=0.039272397884493791 -0.084024372756855495 0.07571478256950441 -0.12659664805744875 -0.063165436204657796
leaf_weight=2.0182265732437363 2.2143511204049 4.1999061908572912 1.1985102221369737 1.2121697133406995
leaf_count=21 21 38 17 26
internal_value=0 0.019581 -0.0336503 -0.0947013
internal_weight=0 8.62881 4.42891 2.41068
internal_count=123 102 64 43
is_linear=0
shrinkage=0.1


Tree=32
num_leaves=7
num_cat=0
split_feature=1 14 34 38 38 8
split_gain=1.81235 2.27111 1.21449 0.00553252 0.000758445 0.000237503
threshold=0.61267155615308688 -0.9824110192802088 -0.9046283445283092 0.54120115676307412 0.13392793007193063 0.030604785368934167
decision_type=2 2 2 2 2 2
left_child=1 -1 -3 4 5 -4
right_child=-2 2 3 -5 -6 -7
leaf_value=0.048274427228785229 0.048641294627384937 0.017098283042029695 -0.10353407037035055 -0.11513515145531408 -0.10871511347131915 -0.10617801522352495
leaf_weight=2.1311633810400963 4.2823231220245361 1.0050055161118505 0.71712558064609833 1.0279847523197529 0.76867128629237402 0.64564104005694389
leaf_count=19 26 9 26 12 15 16
internal_value=0 -0.0356851 -0.0786517 -0.10911 -0.106203 -0.104787
internal_weight=0 6.29559 4.16443 3.15942 2.13144 1.36277
internal_count=123 97 78 69 57 42
is_linear=0
shrinkage=0.1


end of trees

feature_importances:
DU=21
AB=14
EE=10
EL=10
FI=8
AF=7
DL=7
DY=5
CD=5
CU=5
EG=5
DE=5
BQ=4
CR=4
BN=4
DI=2
GB=2
DA=2
BC=2
GE=2
CB=2
CC=2
EJ=1
EP=1
FL=1
AX=1
AZ=1
GL=1
EH=1
BR=1
AY=1
BP=1

parameters:
[boosting: gbdt]
[objective: binary]
[metric: binary:logistic,binary_logloss]
[tree_learner: serial]
[device_type: cpu]
[data: ]
[valid: ]
[num_iterations: 100]
[learning_rate: 0.1]
[num_leaves: 31]
[num_threads: -1]
[deterministic: 0]
[force_col_wise: 0]
[force_row_wise: 0]
[histogram_pool_size: -1]
[max_depth: -1]
[min_data_in_leaf: 20]
[min_sum_hessian_in_leaf: 0.001]
[bagging_fraction: 1]
[pos_bagging_fraction: 1]
[neg_bagging_fraction: 1]
[bagging_freq: 0]
[bagging_seed: 7719]
[feature_fraction: 1]
[feature_fraction_bynode: 1]
[feature_fraction_seed: 2437]
[extra_trees: 0]
[extra_seed: 11797]
[early_stopping_round: 10]
[first_metric_only: 0]
[max_delta_step: 0]
[lambda_l1: 0]
[lambda_l2: 0]
[linear_lambda: 0]
[min_gain_to_split: 0]
[drop_rate: 0.1]
[max_drop: 50]
[skip_drop: 0.5]
[xgboost_dart_mode: 0]
[uniform_drop: 0]
[drop_seed: 21238]
[top_rate: 0.2]
[other_rate: 0.1]
[min_data_per_group: 100]
[max_cat_threshold: 32]
[cat_l2: 10]
[cat_smooth: 10]
[max_cat_to_onehot: 4]
[top_k: 20]
[monotone_constraints: ]
[monotone_constraints_method: basic]
[monotone_penalty: 0]
[feature_contri: ]
[forcedsplits_filename: ]
[refit_decay_rate: 0.9]
[cegb_tradeoff: 1]
[cegb_penalty_split: 0]
[cegb_penalty_feature_lazy: ]
[cegb_penalty_feature_coupled: ]
[path_smooth: 0]
[interaction_constraints: ]
[verbosity: -1]
[saved_feature_importance_type: 0]
[linear_tree: 0]
[max_bin: 255]
[max_bin_by_feature: ]
[min_data_in_bin: 3]
[bin_construct_sample_cnt: 200000]
[data_random_seed: 38]
[is_enable_sparse: 1]
[enable_bundle: 1]
[use_missing: 1]
[zero_as_missing: 0]
[feature_pre_filter: 1]
[pre_partition: 0]
[two_round: 0]
[header: 0]
[label_column: ]
[weight_column: ]
[group_column: ]
[ignore_column: ]
[categorical_feature: ]
[forcedbins_filename: ]
[precise_float_parser: 0]
[objective_seed: 8855]
[num_class: 1]
[is_unbalance: 0]
[scale_pos_weight: 1]
[sigmoid: 1]
[boost_from_average: 1]
[reg_sqrt: 0]
[alpha: 0.9]
[fair_c: 1]
[poisson_max_delta_step: 0.7]
[tweedie_variance_power: 1.5]
[lambdarank_truncation_level: 30]
[lambdarank_norm: 1]
[label_gain: ]
[eval_at: ]
[multi_error_top_k: 1]
[auc_mu_weights: ]
[num_machines: 1]
[local_listen_port: 12400]
[time_out: 120]
[machine_list_filename: ]
[machines: ]
[gpu_platform_id: -1]
[gpu_device_id: -1]
[gpu_use_dp: 0]
[num_gpu: 1]

end of parameters

pandas_categorical:[]
